digraph Tree {
node [shape=box, style="filled, rounded", color="black", fontname=helvetica] ;
edge [fontname=helvetica] ;
0 [label=<Ex_Kurt_Int &le; 0.666<br/>gini = 0.167<br/>samples = 13065<br/>value = [11867, 1198]<br/>class = T>, fillcolor="#e88e4d"] ;
1 [label=<Ex_Kurt_Int &le; 0.295<br/>gini = 0.034<br/>samples = 11996<br/>value = [11789, 207]<br/>class = T>, fillcolor="#e5833c"] ;
0 -> 1 [labeldistance=2.5, labelangle=45, headlabel="True"] ;
2 [label=<Ex_Kurt_Int &le; -0.137<br/>gini = 0.023<br/>samples = 11557<br/>value = [11425, 132]<br/>class = T>, fillcolor="#e5823b"] ;
1 -> 2 ;
3 [label=<Mean_Int &le; -0.783<br/>gini = 0.007<br/>samples = 8213<br/>value = [8184, 29]<br/>class = T>, fillcolor="#e5813a"] ;
2 -> 3 ;
4 [label=<STD_DMSNR &le; -0.634<br/>gini = 0.32<br/>samples = 5<br/>value = [4, 1]<br/>class = T>, fillcolor="#eca06a"] ;
3 -> 4 ;
5 [label=<gini = 0.0<br/>samples = 1<br/>value = [0, 1]<br/>class = a>, fillcolor="#399de5"] ;
4 -> 5 ;
6 [label=<gini = 0.0<br/>samples = 4<br/>value = [4, 0]<br/>class = T>, fillcolor="#e58139"] ;
4 -> 6 ;
7 [label=<Skew_Int &le; -0.029<br/>gini = 0.007<br/>samples = 8208<br/>value = [8180, 28]<br/>class = T>, fillcolor="#e5813a"] ;
3 -> 7 ;
8 [label=<Ex_Kurt_Int &le; -0.315<br/>gini = 0.006<br/>samples = 8119<br/>value = [8094, 25]<br/>class = T>, fillcolor="#e5813a"] ;
7 -> 8 ;
9 [label=<gini = 0.002<br/>samples = 5153<br/>value = [5147, 6]<br/>class = T>, fillcolor="#e58139"] ;
8 -> 9 ;
10 [label=<gini = 0.013<br/>samples = 2966<br/>value = [2947, 19]<br/>class = T>, fillcolor="#e5823a"] ;
8 -> 10 ;
11 [label=<Skew_Int &le; -0.028<br/>gini = 0.065<br/>samples = 89<br/>value = [86, 3]<br/>class = T>, fillcolor="#e68540"] ;
7 -> 11 ;
12 [label=<gini = 0.0<br/>samples = 1<br/>value = [0, 1]<br/>class = a>, fillcolor="#399de5"] ;
11 -> 12 ;
13 [label=<gini = 0.044<br/>samples = 88<br/>value = [86, 2]<br/>class = T>, fillcolor="#e6843e"] ;
11 -> 13 ;
14 [label=<STD_DMSNR &le; 0.436<br/>gini = 0.06<br/>samples = 3344<br/>value = [3241, 103]<br/>class = T>, fillcolor="#e6853f"] ;
2 -> 14 ;
15 [label=<Ex_Kurt_Int &le; -0.137<br/>gini = 0.038<br/>samples = 3073<br/>value = [3013, 60]<br/>class = T>, fillcolor="#e6843d"] ;
14 -> 15 ;
16 [label=<gini = 0.0<br/>samples = 1<br/>value = [0, 1]<br/>class = a>, fillcolor="#399de5"] ;
15 -> 16 ;
17 [label=<STD_DMSNR &le; -0.296<br/>gini = 0.038<br/>samples = 3072<br/>value = [3013, 59]<br/>class = T>, fillcolor="#e6833d"] ;
15 -> 17 ;
18 [label=<gini = 0.024<br/>samples = 2352<br/>value = [2324, 28]<br/>class = T>, fillcolor="#e5833b"] ;
17 -> 18 ;
19 [label=<gini = 0.082<br/>samples = 720<br/>value = [689, 31]<br/>class = T>, fillcolor="#e68742"] ;
17 -> 19 ;
20 [label=<STD_DMSNR &le; 0.443<br/>gini = 0.267<br/>samples = 271<br/>value = [228, 43]<br/>class = T>, fillcolor="#ea995e"] ;
14 -> 20 ;
21 [label=<gini = 0.0<br/>samples = 2<br/>value = [0, 2]<br/>class = a>, fillcolor="#399de5"] ;
20 -> 21 ;
22 [label=<Ex_Kurt_Int &le; -0.033<br/>gini = 0.258<br/>samples = 269<br/>value = [228, 41]<br/>class = T>, fillcolor="#ea985d"] ;
20 -> 22 ;
23 [label=<gini = 0.107<br/>samples = 88<br/>value = [83, 5]<br/>class = T>, fillcolor="#e78945"] ;
22 -> 23 ;
24 [label=<gini = 0.319<br/>samples = 181<br/>value = [145, 36]<br/>class = T>, fillcolor="#eba06a"] ;
22 -> 24 ;
25 [label=<STD_DMSNR &le; 0.067<br/>gini = 0.283<br/>samples = 439<br/>value = [364, 75]<br/>class = T>, fillcolor="#ea9b62"] ;
1 -> 25 ;
26 [label=<STD_Int &le; -0.535<br/>gini = 0.091<br/>samples = 314<br/>value = [299, 15]<br/>class = T>, fillcolor="#e68743"] ;
25 -> 26 ;
27 [label=<Skew_Int &le; -0.035<br/>gini = 0.031<br/>samples = 251<br/>value = [247, 4]<br/>class = T>, fillcolor="#e5833c"] ;
26 -> 27 ;
28 [label=<Ex_Kurt_Int &le; 0.313<br/>gini = 0.444<br/>samples = 3<br/>value = [2, 1]<br/>class = T>, fillcolor="#f2c09c"] ;
27 -> 28 ;
29 [label=<gini = 0.0<br/>samples = 1<br/>value = [0, 1]<br/>class = a>, fillcolor="#399de5"] ;
28 -> 29 ;
30 [label=<gini = 0.0<br/>samples = 2<br/>value = [2, 0]<br/>class = T>, fillcolor="#e58139"] ;
28 -> 30 ;
31 [label=<Mean_Int &le; -1.628<br/>gini = 0.024<br/>samples = 248<br/>value = [245, 3]<br/>class = T>, fillcolor="#e5833b"] ;
27 -> 31 ;
32 [label=<gini = 0.32<br/>samples = 5<br/>value = [4, 1]<br/>class = T>, fillcolor="#eca06a"] ;
31 -> 32 ;
33 [label=<gini = 0.016<br/>samples = 243<br/>value = [241, 2]<br/>class = T>, fillcolor="#e5823b"] ;
31 -> 33 ;
34 [label=<Mean_DMSNR &le; -0.362<br/>gini = 0.288<br/>samples = 63<br/>value = [52, 11]<br/>class = T>, fillcolor="#ea9c63"] ;
26 -> 34 ;
35 [label=<gini = 0.0<br/>samples = 24<br/>value = [24, 0]<br/>class = T>, fillcolor="#e58139"] ;
34 -> 35 ;
36 [label=<STD_Int &le; -0.416<br/>gini = 0.405<br/>samples = 39<br/>value = [28, 11]<br/>class = T>, fillcolor="#efb287"] ;
34 -> 36 ;
37 [label=<gini = 0.0<br/>samples = 2<br/>value = [0, 2]<br/>class = a>, fillcolor="#399de5"] ;
36 -> 37 ;
38 [label=<gini = 0.368<br/>samples = 37<br/>value = [28, 9]<br/>class = T>, fillcolor="#edaa79"] ;
36 -> 38 ;
39 [label=<STD_Int &le; -0.716<br/>gini = 0.499<br/>samples = 125<br/>value = [65, 60]<br/>class = T>, fillcolor="#fdf5f0"] ;
25 -> 39 ;
40 [label=<Mean_Int &le; -0.85<br/>gini = 0.245<br/>samples = 42<br/>value = [36, 6]<br/>class = T>, fillcolor="#e9965a"] ;
39 -> 40 ;
41 [label=<Ex_Kurt_Int &le; 0.658<br/>gini = 0.061<br/>samples = 32<br/>value = [31, 1]<br/>class = T>, fillcolor="#e6853f"] ;
40 -> 41 ;
42 [label=<gini = 0.0<br/>samples = 31<br/>value = [31, 0]<br/>class = T>, fillcolor="#e58139"] ;
41 -> 42 ;
43 [label=<gini = 0.0<br/>samples = 1<br/>value = [0, 1]<br/>class = a>, fillcolor="#399de5"] ;
41 -> 43 ;
44 [label=<Skew_DMSNR &le; -0.641<br/>gini = 0.5<br/>samples = 10<br/>value = [5, 5]<br/>class = T>, fillcolor="#ffffff"] ;
40 -> 44 ;
45 [label=<gini = 0.469<br/>samples = 8<br/>value = [3, 5]<br/>class = a>, fillcolor="#b0d8f5"] ;
44 -> 45 ;
46 [label=<gini = 0.0<br/>samples = 2<br/>value = [2, 0]<br/>class = T>, fillcolor="#e58139"] ;
44 -> 46 ;
47 [label=<Ex_Kurt_DMSNR &le; -1.534<br/>gini = 0.455<br/>samples = 83<br/>value = [29, 54]<br/>class = a>, fillcolor="#a3d2f3"] ;
39 -> 47 ;
48 [label=<STD_DMSNR &le; 2.394<br/>gini = 0.488<br/>samples = 38<br/>value = [22, 16]<br/>class = T>, fillcolor="#f8ddc9"] ;
47 -> 48 ;
49 [label=<gini = 0.26<br/>samples = 13<br/>value = [11, 2]<br/>class = T>, fillcolor="#ea985d"] ;
48 -> 49 ;
50 [label=<gini = 0.493<br/>samples = 25<br/>value = [11, 14]<br/>class = a>, fillcolor="#d5eaf9"] ;
48 -> 50 ;
51 [label=<Ex_Kurt_DMSNR &le; -0.437<br/>gini = 0.263<br/>samples = 45<br/>value = [7, 38]<br/>class = a>, fillcolor="#5dafea"] ;
47 -> 51 ;
52 [label=<gini = 0.21<br/>samples = 42<br/>value = [5, 37]<br/>class = a>, fillcolor="#54aae9"] ;
51 -> 52 ;
53 [label=<gini = 0.444<br/>samples = 3<br/>value = [2, 1]<br/>class = T>, fillcolor="#f2c09c"] ;
51 -> 53 ;
54 [label=<Ex_Kurt_Int &le; 0.985<br/>gini = 0.135<br/>samples = 1069<br/>value = [78, 991]<br/>class = a>, fillcolor="#49a5e7"] ;
0 -> 54 [labeldistance=2.5, labelangle=-45, headlabel="False"] ;
55 [label=<Mean_Int &le; -1.626<br/>gini = 0.463<br/>samples = 129<br/>value = [47, 82]<br/>class = a>, fillcolor="#aad5f4"] ;
54 -> 55 ;
56 [label=<gini = 0.0<br/>samples = 9<br/>value = [9, 0]<br/>class = T>, fillcolor="#e58139"] ;
55 -> 56 ;
57 [label=<Skew_DMSNR &le; -0.998<br/>gini = 0.433<br/>samples = 120<br/>value = [38, 82]<br/>class = a>, fillcolor="#95caf1"] ;
55 -> 57 ;
58 [label=<gini = 0.0<br/>samples = 5<br/>value = [5, 0]<br/>class = T>, fillcolor="#e58139"] ;
57 -> 58 ;
59 [label=<STD_DMSNR &le; -0.051<br/>gini = 0.409<br/>samples = 115<br/>value = [33, 82]<br/>class = a>, fillcolor="#89c4ef"] ;
57 -> 59 ;
60 [label=<Skew_DMSNR &le; -0.437<br/>gini = 0.465<br/>samples = 19<br/>value = [12, 7]<br/>class = T>, fillcolor="#f4caac"] ;
59 -> 60 ;
61 [label=<gini = 0.0<br/>samples = 5<br/>value = [5, 0]<br/>class = T>, fillcolor="#e58139"] ;
60 -> 61 ;
62 [label=<gini = 0.5<br/>samples = 14<br/>value = [7, 7]<br/>class = T>, fillcolor="#ffffff"] ;
60 -> 62 ;
63 [label=<Ex_Kurt_DMSNR &le; -1.521<br/>gini = 0.342<br/>samples = 96<br/>value = [21, 75]<br/>class = a>, fillcolor="#70b8ec"] ;
59 -> 63 ;
64 [label=<gini = 0.493<br/>samples = 34<br/>value = [15, 19]<br/>class = a>, fillcolor="#d5eafa"] ;
63 -> 64 ;
65 [label=<gini = 0.175<br/>samples = 62<br/>value = [6, 56]<br/>class = a>, fillcolor="#4ea8e8"] ;
63 -> 65 ;
66 [label=<Skew_DMSNR &le; -0.999<br/>gini = 0.064<br/>samples = 940<br/>value = [31, 909]<br/>class = a>, fillcolor="#40a0e6"] ;
54 -> 66 ;
67 [label=<Skew_Int &le; 0.177<br/>gini = 0.375<br/>samples = 4<br/>value = [3, 1]<br/>class = T>, fillcolor="#eeab7b"] ;
66 -> 67 ;
68 [label=<gini = 0.0<br/>samples = 1<br/>value = [0, 1]<br/>class = a>, fillcolor="#399de5"] ;
67 -> 68 ;
69 [label=<gini = 0.0<br/>samples = 3<br/>value = [3, 0]<br/>class = T>, fillcolor="#e58139"] ;
67 -> 69 ;
70 [label=<Ex_Kurt_Int &le; 2.067<br/>gini = 0.058<br/>samples = 936<br/>value = [28, 908]<br/>class = a>, fillcolor="#3fa0e6"] ;
66 -> 70 ;
71 [label=<Mean_DMSNR &le; 5.301<br/>gini = 0.162<br/>samples = 281<br/>value = [25, 256]<br/>class = a>, fillcolor="#4ca7e8"] ;
70 -> 71 ;
72 [label=<Skew_Int &le; 0.068<br/>gini = 0.151<br/>samples = 279<br/>value = [23, 256]<br/>class = a>, fillcolor="#4ba6e7"] ;
71 -> 72 ;
73 [label=<gini = 0.444<br/>samples = 3<br/>value = [2, 1]<br/>class = T>, fillcolor="#f2c09c"] ;
72 -> 73 ;
74 [label=<gini = 0.141<br/>samples = 276<br/>value = [21, 255]<br/>class = a>, fillcolor="#49a5e7"] ;
72 -> 74 ;
75 [label=<gini = 0.0<br/>samples = 2<br/>value = [2, 0]<br/>class = T>, fillcolor="#e58139"] ;
71 -> 75 ;
76 [label=<Mean_DMSNR &le; 5.937<br/>gini = 0.009<br/>samples = 655<br/>value = [3, 652]<br/>class = a>, fillcolor="#3a9de5"] ;
70 -> 76 ;
77 [label=<STD_Int &le; 0.066<br/>gini = 0.006<br/>samples = 653<br/>value = [2, 651]<br/>class = a>, fillcolor="#3a9de5"] ;
76 -> 77 ;
78 [label=<gini = 0.003<br/>samples = 637<br/>value = [1, 636]<br/>class = a>, fillcolor="#399de5"] ;
77 -> 78 ;
79 [label=<gini = 0.117<br/>samples = 16<br/>value = [1, 15]<br/>class = a>, fillcolor="#46a4e7"] ;
77 -> 79 ;
80 [label=<STD_Int &le; -1.325<br/>gini = 0.5<br/>samples = 2<br/>value = [1, 1]<br/>class = T>, fillcolor="#ffffff"] ;
76 -> 80 ;
81 [label=<gini = 0.0<br/>samples = 1<br/>value = [0, 1]<br/>class = a>, fillcolor="#399de5"] ;
80 -> 81 ;
82 [label=<gini = 0.0<br/>samples = 1<br/>value = [1, 0]<br/>class = T>, fillcolor="#e58139"] ;
80 -> 82 ;
}